digraph Tree {
node [shape=box, style="filled", color="black", fontname="helvetica"] ;
edge [fontname="helvetica"] ;
0 [label="Last_Month_spend <= 385.0\ngini = 0.341\nsamples = 142\nvalue = [111, 31]", fillcolor="#eca470"] ;
1 [label="Last_3m_avg_spend <= 235.0\ngini = 0.493\nsamples = 41\nvalue = [23, 18]", fillcolor="#f9e4d4"] ;
0 -> 1 [labeldistance=2.5, labelangle=45, headlabel="True"] ;
2 [label="Last_Month_spend <= 105.0\ngini = 0.375\nsamples = 24\nvalue = [18, 6]", fillcolor="#eeab7b"] ;
1 -> 2 ;
3 [label="gini = 0.5\nsamples = 6\nvalue = [3, 3]", fillcolor="#ffffff"] ;
2 -> 3 ;
4 [label="Gender <= 0.5\ngini = 0.278\nsamples = 18\nvalue = [15, 3]", fillcolor="#ea9a61"] ;
2 -> 4 ;
5 [label="gini = 0.0\nsamples = 10\nvalue = [10, 0]", fillcolor="#e58139"] ;
4 -> 5 ;
6 [label="gini = 0.469\nsamples = 8\nvalue = [5, 3]", fillcolor="#f5cdb0"] ;
4 -> 6 ;
7 [label="Gender <= 0.5\ngini = 0.415\nsamples = 17\nvalue = [5, 12]", fillcolor="#8bc6f0"] ;
1 -> 7 ;
8 [label="Last_Month_spend <= 270.0\ngini = 0.298\nsamples = 11\nvalue = [2, 9]", fillcolor="#65b3eb"] ;
7 -> 8 ;
9 [label="gini = 0.0\nsamples = 6\nvalue = [0, 6]", fillcolor="#399de5"] ;
8 -> 9 ;
10 [label="gini = 0.48\nsamples = 5\nvalue = [2, 3]", fillcolor="#bddef6"] ;
8 -> 10 ;
11 [label="gini = 0.5\nsamples = 6\nvalue = [3, 3]", fillcolor="#ffffff"] ;
7 -> 11 ;
12 [label="Last_3m_avg_spend <= 690.0\ngini = 0.224\nsamples = 101\nvalue = [88, 13]", fillcolor="#e99456"] ;
0 -> 12 [labeldistance=2.5, labelangle=-45, headlabel="False"] ;
13 [label="Last_Month_spend <= 535.0\ngini = 0.102\nsamples = 37\nvalue = [35, 2]", fillcolor="#e68844"] ;
12 -> 13 ;
14 [label="Last_Month_spend <= 455.0\ngini = 0.188\nsamples = 19\nvalue = [17, 2]", fillcolor="#e89050"] ;
13 -> 14 ;
15 [label="gini = 0.0\nsamples = 8\nvalue = [8, 0]", fillcolor="#e58139"] ;
14 -> 15 ;
16 [label="Education_level <= 1.5\ngini = 0.298\nsamples = 11\nvalue = [9, 2]", fillcolor="#eb9d65"] ;
14 -> 16 ;
17 [label="gini = 0.32\nsamples = 5\nvalue = [4, 1]", fillcolor="#eca06a"] ;
16 -> 17 ;
18 [label="gini = 0.278\nsamples = 6\nvalue = [5, 1]", fillcolor="#ea9a61"] ;
16 -> 18 ;
19 [label="gini = 0.0\nsamples = 18\nvalue = [18, 0]", fillcolor="#e58139"] ;
13 -> 19 ;
20 [label="Last_Month_spend <= 750.0\ngini = 0.285\nsamples = 64\nvalue = [53, 11]", fillcolor="#ea9b62"] ;
12 -> 20 ;
21 [label="Last_3m_avg_spend <= 735.0\ngini = 0.48\nsamples = 10\nvalue = [6, 4]", fillcolor="#f6d5bd"] ;
20 -> 21 ;
22 [label="gini = 0.32\nsamples = 5\nvalue = [4, 1]", fillcolor="#eca06a"] ;
21 -> 22 ;
23 [label="gini = 0.48\nsamples = 5\nvalue = [2, 3]", fillcolor="#bddef6"] ;
21 -> 23 ;
24 [label="Last_Month_spend <= 835.0\ngini = 0.226\nsamples = 54\nvalue = [47, 7]", fillcolor="#e99456"] ;
20 -> 24 ;
25 [label="gini = 0.0\nsamples = 10\nvalue = [10, 0]", fillcolor="#e58139"] ;
24 -> 25 ;
26 [label="Last_Month_spend <= 885.0\ngini = 0.268\nsamples = 44\nvalue = [37, 7]", fillcolor="#ea995e"] ;
24 -> 26 ;
27 [label="gini = 0.48\nsamples = 5\nvalue = [2, 3]", fillcolor="#bddef6"] ;
26 -> 27 ;
28 [label="gini = 0.184\nsamples = 39\nvalue = [35, 4]", fillcolor="#e88f50"] ;
26 -> 28 ;
}